digraph Tree {
0 [label="X[0] <= 6.5268\ngini = 0.62\nsamples = 10", shape="box"] ;
1 [label="X[1] <= 33.8335\ngini = 0.375\nsamples = 4", shape="box"] ;
0 -> 1 ;
2 [label="gini = 0.0000\nsamples = 1\nvalue = [ 0.  0.  1.]", shape="box"] ;
1 -> 2 ;
3 [label="gini = 0.0000\nsamples = 3\nvalue = [ 0.  3.  0.]", shape="box"] ;
1 -> 3 ;
4 [label="X[2] <= 54.7032\ngini = 0.277777777778\nsamples = 6", shape="box"] ;
0 -> 4 ;
5 [label="X[0] <= 9.4640\ngini = 0.5\nsamples = 2", shape="box"] ;
4 -> 5 ;
6 [label="gini = 0.0000\nsamples = 1\nvalue = [ 1.  0.  0.]", shape="box"] ;
5 -> 6 ;
7 [label="gini = 0.0000\nsamples = 1\nvalue = [ 0.  0.  1.]", shape="box"] ;
5 -> 7 ;
8 [label="gini = 0.0000\nsamples = 4\nvalue = [ 4.  0.  0.]", shape="box"] ;
4 -> 8 ;
}