digraph Tree {
node [shape=box, style="filled, rounded", color="black", fontname=helvetica] ;
edge [fontname=helvetica] ;
0 [label="Dis_butball <= 28.6616\ngini = 0.6569\nsamples = 254\nvalue = [111, 72, 3, 68]\nclass = alligne_demi_cercle", fillcolor="#e5813937"] ;
1 [label="Dis_butball <= 13.616\ngini = 0.4217\nsamples = 89\nvalue = [10, 66, 2, 11]\nclass = degager", fillcolor="#47e539b4"] ;
0 -> 1 [labeldistance=2.5, labelangle=45, headlabel="True"] ;
2 [label="Dis_moiball <= 12.3142\ngini = 0.1848\nsamples = 50\nvalue = [2, 45, 0, 3]\nclass = degager", fillcolor="#47e539e4"] ;
1 -> 2 ;
3 [label="Dis_butball <= 9.9908\ngini = 0.1554\nsamples = 48\nvalue = [1, 44, 0, 3]\nclass = degager", fillcolor="#47e539e8"] ;
2 -> 3 ;
4 [label="Dis_butball <= 2.8864\ngini = 0.0962\nsamples = 40\nvalue = [1, 38, 0, 1]\nclass = degager", fillcolor="#47e539f2"] ;
3 -> 4 ;
5 [label="gini = 0.375\nsamples = 4\nvalue = [1, 3, 0, 0]\nclass = degager", fillcolor="#47e539aa"] ;
4 -> 5 ;
6 [label="gini = 0.054\nsamples = 36\nvalue = [0, 35, 0, 1]\nclass = degager", fillcolor="#47e539f8"] ;
4 -> 6 ;
7 [label="Dis_moiball <= 7.5143\ngini = 0.375\nsamples = 8\nvalue = [0, 6, 0, 2]\nclass = degager", fillcolor="#47e539aa"] ;
3 -> 7 ;
8 [label="gini = 0.4444\nsamples = 3\nvalue = [0, 1, 0, 2]\nclass = protect_cage", fillcolor="#d739e57f"] ;
7 -> 8 ;
9 [label="gini = 0.0\nsamples = 5\nvalue = [0, 5, 0, 0]\nclass = degager", fillcolor="#47e539ff"] ;
7 -> 9 ;
10 [label="gini = 0.5\nsamples = 2\nvalue = [1, 1, 0, 0]\nclass = alligne_demi_cercle", fillcolor="#e5813900"] ;
2 -> 10 ;
11 [label="Dis_moiball <= 8.7736\ngini = 0.6233\nsamples = 39\nvalue = [8, 21, 2, 8]\nclass = degager", fillcolor="#47e5396b"] ;
1 -> 11 ;
12 [label="Dis_butball <= 20.5699\ngini = 0.32\nsamples = 5\nvalue = [4, 0, 1, 0]\nclass = alligne_demi_cercle", fillcolor="#e58139bf"] ;
11 -> 12 ;
13 [label="gini = 0.0\nsamples = 3\nvalue = [3, 0, 0, 0]\nclass = alligne_demi_cercle", fillcolor="#e58139ff"] ;
12 -> 13 ;
14 [label="gini = 0.5\nsamples = 2\nvalue = [1, 0, 1, 0]\nclass = alligne_demi_cercle", fillcolor="#e5813900"] ;
12 -> 14 ;
15 [label="Dis_moiball <= 23.3089\ngini = 0.5484\nsamples = 34\nvalue = [4, 21, 1, 8]\nclass = degager", fillcolor="#47e53980"] ;
11 -> 15 ;
16 [label="Dis_butball <= 22.4904\ngini = 0.5868\nsamples = 24\nvalue = [2, 13, 1, 8]\nclass = degager", fillcolor="#47e53950"] ;
15 -> 16 ;
17 [label="gini = 0.34\nsamples = 10\nvalue = [1, 8, 0, 1]\nclass = degager", fillcolor="#47e539c6"] ;
16 -> 17 ;
18 [label="gini = 0.6122\nsamples = 14\nvalue = [1, 5, 1, 7]\nclass = protect_cage", fillcolor="#d739e539"] ;
16 -> 18 ;
19 [label="qui a balle <= 1.5\ngini = 0.32\nsamples = 10\nvalue = [2, 8, 0, 0]\nclass = degager", fillcolor="#47e539bf"] ;
15 -> 19 ;
20 [label="gini = 0.48\nsamples = 5\nvalue = [2, 3, 0, 0]\nclass = degager", fillcolor="#47e53955"] ;
19 -> 20 ;
21 [label="gini = 0.0\nsamples = 5\nvalue = [0, 5, 0, 0]\nclass = degager", fillcolor="#47e539ff"] ;
19 -> 21 ;
22 [label="Dis_butball <= 53.7736\ngini = 0.5046\nsamples = 165\nvalue = [101, 6, 1, 57]\nclass = alligne_demi_cercle", fillcolor="#e5813968"] ;
0 -> 22 [labeldistance=2.5, labelangle=-45, headlabel="False"] ;
23 [label="qui a balle <= 1.5\ngini = 0.4878\nsamples = 82\nvalue = [25, 3, 1, 53]\nclass = protect_cage", fillcolor="#d739e57d"] ;
22 -> 23 ;
24 [label="Dis_advprocheball <= 14.0992\ngini = 0.5406\nsamples = 60\nvalue = [25, 2, 1, 32]\nclass = protect_cage", fillcolor="#d739e533"] ;
23 -> 24 ;
25 [label="Dis_butball <= 42.8369\ngini = 0.2449\nsamples = 14\nvalue = [2, 0, 0, 12]\nclass = protect_cage", fillcolor="#d739e5d4"] ;
24 -> 25 ;
26 [label="gini = 0.0\nsamples = 12\nvalue = [0, 0, 0, 12]\nclass = protect_cage", fillcolor="#d739e5ff"] ;
25 -> 26 ;
27 [label="gini = 0.0\nsamples = 2\nvalue = [2, 0, 0, 0]\nclass = alligne_demi_cercle", fillcolor="#e58139ff"] ;
25 -> 27 ;
28 [label="Dis_moiball <= 40.5817\ngini = 0.5586\nsamples = 46\nvalue = [23, 2, 1, 20]\nclass = alligne_demi_cercle", fillcolor="#e581391d"] ;
24 -> 28 ;
29 [label="gini = 0.5378\nsamples = 39\nvalue = [23, 2, 1, 13]\nclass = alligne_demi_cercle", fillcolor="#e5813962"] ;
28 -> 29 ;
30 [label="gini = 0.0\nsamples = 7\nvalue = [0, 0, 0, 7]\nclass = protect_cage", fillcolor="#d739e5ff"] ;
28 -> 30 ;
31 [label="Dis_butball <= 30.5201\ngini = 0.0868\nsamples = 22\nvalue = [0, 1, 0, 21]\nclass = protect_cage", fillcolor="#d739e5f3"] ;
23 -> 31 ;
32 [label="gini = 0.5\nsamples = 2\nvalue = [0, 1, 0, 1]\nclass = degager", fillcolor="#47e53900"] ;
31 -> 32 ;
33 [label="gini = 0.0\nsamples = 20\nvalue = [0, 0, 0, 20]\nclass = protect_cage", fillcolor="#d739e5ff"] ;
31 -> 33 ;
34 [label="Dis_advprocheball <= 96.5666\ngini = 0.1579\nsamples = 83\nvalue = [76, 3, 0, 4]\nclass = alligne_demi_cercle", fillcolor="#e58139e8"] ;
22 -> 34 ;
35 [label="Dis_butball <= 55.3482\ngini = 0.1396\nsamples = 81\nvalue = [75, 2, 0, 4]\nclass = alligne_demi_cercle", fillcolor="#e58139eb"] ;
34 -> 35 ;
36 [label="gini = 0.4444\nsamples = 3\nvalue = [2, 0, 0, 1]\nclass = alligne_demi_cercle", fillcolor="#e581397f"] ;
35 -> 36 ;
37 [label="Dis_moiball <= 59.4457\ngini = 0.122\nsamples = 78\nvalue = [73, 2, 0, 3]\nclass = alligne_demi_cercle", fillcolor="#e58139ee"] ;
35 -> 37 ;
38 [label="gini = 0.0\nsamples = 33\nvalue = [33, 0, 0, 0]\nclass = alligne_demi_cercle", fillcolor="#e58139ff"] ;
37 -> 38 ;
39 [label="gini = 0.2035\nsamples = 45\nvalue = [40, 2, 0, 3]\nclass = alligne_demi_cercle", fillcolor="#e58139e1"] ;
37 -> 39 ;
40 [label="gini = 0.5\nsamples = 2\nvalue = [1, 1, 0, 0]\nclass = alligne_demi_cercle", fillcolor="#e5813900"] ;
34 -> 40 ;
}