digraph Tree {
node [shape=box, style="filled, rounded", color="black", fontname=helvetica] ;
edge [fontname=helvetica] ;
0 [label="Dis_ballbut <= 28.6616\ngini = 0.6569\nsamples = 254\nvalue = [111, 72, 3, 68]\nclass = alligne_demi_cercle", fillcolor="#e5813937"] ;
1 [label="Dis_but_advprbut <= 14.2719\ngini = 0.4217\nsamples = 89\nvalue = [10, 66, 2, 11]\nclass = degager", fillcolor="#47e539b4"] ;
0 -> 1 [labeldistance=2.5, labelangle=45, headlabel="True"] ;
2 [label="Dis_but_advprbut <= 8.3476\ngini = 0.48\nsamples = 10\nvalue = [7, 1, 1, 1]\nclass = alligne_demi_cercle", fillcolor="#e58139aa"] ;
1 -> 2 ;
3 [label="gini = 0.6667\nsamples = 3\nvalue = [1, 1, 0, 1]\nclass = alligne_demi_cercle", fillcolor="#e5813900"] ;
2 -> 3 ;
4 [label="Dis_ballbut <= 27.3217\ngini = 0.2449\nsamples = 7\nvalue = [6, 0, 1, 0]\nclass = alligne_demi_cercle", fillcolor="#e58139d4"] ;
2 -> 4 ;
5 [label="gini = 0.0\nsamples = 5\nvalue = [5, 0, 0, 0]\nclass = alligne_demi_cercle", fillcolor="#e58139ff"] ;
4 -> 5 ;
6 [label="gini = 0.5\nsamples = 2\nvalue = [1, 0, 1, 0]\nclass = alligne_demi_cercle", fillcolor="#e5813900"] ;
4 -> 6 ;
7 [label="Dis_ballbut <= 21.435\ngini = 0.3054\nsamples = 79\nvalue = [3, 65, 1, 10]\nclass = degager", fillcolor="#47e539cb"] ;
1 -> 7 ;
8 [label="Dis_but_advprbut <= 31.6457\ngini = 0.1939\nsamples = 57\nvalue = [3, 51, 0, 3]\nclass = degager", fillcolor="#47e539e3"] ;
7 -> 8 ;
9 [label="Dis_ballbut <= 2.8864\ngini = 0.0898\nsamples = 43\nvalue = [1, 41, 0, 1]\nclass = degager", fillcolor="#47e539f3"] ;
8 -> 9 ;
10 [label="gini = 0.375\nsamples = 4\nvalue = [1, 3, 0, 0]\nclass = degager", fillcolor="#47e539aa"] ;
9 -> 10 ;
11 [label="gini = 0.05\nsamples = 39\nvalue = [0, 38, 0, 1]\nclass = degager", fillcolor="#47e539f8"] ;
9 -> 11 ;
12 [label="Dis_but_advprbut <= 35.0492\ngini = 0.449\nsamples = 14\nvalue = [2, 10, 0, 2]\nclass = degager", fillcolor="#47e539aa"] ;
8 -> 12 ;
13 [label="gini = 0.5\nsamples = 2\nvalue = [1, 0, 0, 1]\nclass = alligne_demi_cercle", fillcolor="#e5813900"] ;
12 -> 13 ;
14 [label="gini = 0.2917\nsamples = 12\nvalue = [1, 10, 0, 1]\nclass = degager", fillcolor="#47e539d1"] ;
12 -> 14 ;
15 [label="Dis_moiball - Dis_advprball <= 22.2734\ngini = 0.4917\nsamples = 22\nvalue = [0, 14, 1, 7]\nclass = degager", fillcolor="#47e53977"] ;
7 -> 15 ;
16 [label="Dis_but_advprbut <= 36.4074\ngini = 0.5547\nsamples = 16\nvalue = [0, 8, 1, 7]\nclass = degager", fillcolor="#47e5391c"] ;
15 -> 16 ;
17 [label="gini = 0.449\nsamples = 7\nvalue = [0, 1, 1, 5]\nclass = protect_cage", fillcolor="#d739e5aa"] ;
16 -> 17 ;
18 [label="gini = 0.3457\nsamples = 9\nvalue = [0, 7, 0, 2]\nclass = degager", fillcolor="#47e539b6"] ;
16 -> 18 ;
19 [label="gini = 0.0\nsamples = 6\nvalue = [0, 6, 0, 0]\nclass = degager", fillcolor="#47e539ff"] ;
15 -> 19 ;
20 [label="Dis_ballbut <= 53.7736\ngini = 0.5046\nsamples = 165\nvalue = [101, 6, 1, 57]\nclass = alligne_demi_cercle", fillcolor="#e5813968"] ;
0 -> 20 [labeldistance=2.5, labelangle=-45, headlabel="False"] ;
21 [label="Dis_but_advprbut <= 26.8529\ngini = 0.4878\nsamples = 82\nvalue = [25, 3, 1, 53]\nclass = protect_cage", fillcolor="#d739e57d"] ;
20 -> 21 ;
22 [label="Dis_moiball - Dis_advprball <= -6.1234\ngini = 0.1723\nsamples = 21\nvalue = [19, 0, 0, 2]\nclass = alligne_demi_cercle", fillcolor="#e58139e4"] ;
21 -> 22 ;
23 [label="gini = 0.5\nsamples = 2\nvalue = [1, 0, 0, 1]\nclass = alligne_demi_cercle", fillcolor="#e5813900"] ;
22 -> 23 ;
24 [label="Dis_ballbut <= 44.7002\ngini = 0.0997\nsamples = 19\nvalue = [18, 0, 0, 1]\nclass = alligne_demi_cercle", fillcolor="#e58139f1"] ;
22 -> 24 ;
25 [label="gini = 0.0\nsamples = 14\nvalue = [14, 0, 0, 0]\nclass = alligne_demi_cercle", fillcolor="#e58139ff"] ;
24 -> 25 ;
26 [label="gini = 0.32\nsamples = 5\nvalue = [4, 0, 0, 1]\nclass = alligne_demi_cercle", fillcolor="#e58139bf"] ;
24 -> 26 ;
27 [label="Dis_ballbut <= 43.5951\ngini = 0.2886\nsamples = 61\nvalue = [6, 3, 1, 51]\nclass = protect_cage", fillcolor="#d739e5d1"] ;
21 -> 27 ;
28 [label="Dis_ballbut <= 30.9925\ngini = 0.2004\nsamples = 46\nvalue = [1, 3, 1, 41]\nclass = protect_cage", fillcolor="#d739e5e1"] ;
27 -> 28 ;
29 [label="gini = 0.5139\nsamples = 12\nvalue = [1, 2, 1, 8]\nclass = protect_cage", fillcolor="#d739e599"] ;
28 -> 29 ;
30 [label="gini = 0.0571\nsamples = 34\nvalue = [0, 1, 0, 33]\nclass = protect_cage", fillcolor="#d739e5f7"] ;
28 -> 30 ;
31 [label="Dis_moiball - Dis_advprball <= -63.4165\ngini = 0.4444\nsamples = 15\nvalue = [5, 0, 0, 10]\nclass = protect_cage", fillcolor="#d739e57f"] ;
27 -> 31 ;
32 [label="gini = 0.0\nsamples = 2\nvalue = [2, 0, 0, 0]\nclass = alligne_demi_cercle", fillcolor="#e58139ff"] ;
31 -> 32 ;
33 [label="gini = 0.355\nsamples = 13\nvalue = [3, 0, 0, 10]\nclass = protect_cage", fillcolor="#d739e5b3"] ;
31 -> 33 ;
34 [label="Dis_moiball - Dis_advprball <= -35.5767\ngini = 0.1579\nsamples = 83\nvalue = [76, 3, 0, 4]\nclass = alligne_demi_cercle", fillcolor="#e58139e8"] ;
20 -> 34 ;
35 [label="gini = 0.5\nsamples = 2\nvalue = [1, 1, 0, 0]\nclass = alligne_demi_cercle", fillcolor="#e5813900"] ;
34 -> 35 ;
36 [label="Dis_ballbut <= 55.3482\ngini = 0.1396\nsamples = 81\nvalue = [75, 2, 0, 4]\nclass = alligne_demi_cercle", fillcolor="#e58139eb"] ;
34 -> 36 ;
37 [label="gini = 0.4444\nsamples = 3\nvalue = [2, 0, 0, 1]\nclass = alligne_demi_cercle", fillcolor="#e581397f"] ;
36 -> 37 ;
38 [label="Dis_but_advprbut <= 134.2185\ngini = 0.122\nsamples = 78\nvalue = [73, 2, 0, 3]\nclass = alligne_demi_cercle", fillcolor="#e58139ee"] ;
36 -> 38 ;
39 [label="gini = 0.0852\nsamples = 68\nvalue = [65, 1, 0, 2]\nclass = alligne_demi_cercle", fillcolor="#e58139f3"] ;
38 -> 39 ;
40 [label="gini = 0.34\nsamples = 10\nvalue = [8, 1, 0, 1]\nclass = alligne_demi_cercle", fillcolor="#e58139c6"] ;
38 -> 40 ;
}