digraph Tree {
node [shape=box, style="filled, rounded", color="black", fontname=helvetica] ;
edge [fontname=helvetica] ;
0 [label="d_but_ball <= 85.0416\ngini = 0.7261\nsamples = 64\nvalue = [21, 22, 12, 7, 2]\nclass = dribbler", fillcolor="#7be53906"] ;
1 [label="d_me_but_adv <= 104.6248\ngini = 0.6853\nsamples = 41\nvalue = [5, 20, 8, 6, 2]\nclass = dribbler", fillcolor="#7be5395d"] ;
0 -> 1 [labeldistance=2.5, labelangle=45, headlabel="True"] ;
2 [label="d_but_ball <= 43.7223\ngini = 0.6171\nsamples = 35\nvalue = [5, 20, 2, 6, 2]\nclass = dribbler", fillcolor="#7be5397b"] ;
1 -> 2 ;
3 [label="d_me_but_adv <= 16.6581\ngini = 0.7266\nsamples = 16\nvalue = [4, 5, 0, 5, 2]\nclass = dribbler", fillcolor="#7be53900"] ;
2 -> 3 ;
4 [label="d_but_ball <= 8.7215\ngini = 0.4898\nsamples = 7\nvalue = [4, 3, 0, 0, 0]\nclass = degager", fillcolor="#e5813940"] ;
3 -> 4 ;
5 [label="gini = 0.0\nsamples = 2\nvalue = [0, 2, 0, 0, 0]\nclass = dribbler", fillcolor="#7be539ff"] ;
4 -> 5 ;
6 [label="gini = 0.32\nsamples = 5\nvalue = [4, 1, 0, 0, 0]\nclass = degager", fillcolor="#e58139bf"] ;
4 -> 6 ;
7 [label="d_but_ball <= 36.2061\ngini = 0.5926\nsamples = 9\nvalue = [0, 2, 0, 5, 2]\nclass = shoot_nord", fillcolor="#3c39e56d"] ;
3 -> 7 ;
8 [label="gini = 0.0\nsamples = 4\nvalue = [0, 0, 0, 4, 0]\nclass = shoot_nord", fillcolor="#3c39e5ff"] ;
7 -> 8 ;
9 [label="gini = 0.64\nsamples = 5\nvalue = [0, 2, 0, 1, 2]\nclass = dribbler", fillcolor="#7be53900"] ;
7 -> 9 ;
10 [label="d_ball_adv <= 11.2169\ngini = 0.3601\nsamples = 19\nvalue = [1, 15, 2, 1, 0]\nclass = dribbler", fillcolor="#7be539c3"] ;
2 -> 10 ;
11 [label="d_me_ball <= 19.4677\ngini = 0.625\nsamples = 4\nvalue = [1, 2, 0, 1, 0]\nclass = dribbler", fillcolor="#7be53955"] ;
10 -> 11 ;
12 [label="gini = 0.5\nsamples = 2\nvalue = [0, 1, 0, 1, 0]\nclass = dribbler", fillcolor="#7be53900"] ;
11 -> 12 ;
13 [label="gini = 0.5\nsamples = 2\nvalue = [1, 1, 0, 0, 0]\nclass = degager", fillcolor="#e5813900"] ;
11 -> 13 ;
14 [label="d_ball_adv <= 32.1629\ngini = 0.2311\nsamples = 15\nvalue = [0, 13, 2, 0, 0]\nclass = dribbler", fillcolor="#7be539d8"] ;
10 -> 14 ;
15 [label="gini = 0.3457\nsamples = 9\nvalue = [0, 7, 2, 0, 0]\nclass = dribbler", fillcolor="#7be539b6"] ;
14 -> 15 ;
16 [label="gini = 0.0\nsamples = 6\nvalue = [0, 6, 0, 0, 0]\nclass = dribbler", fillcolor="#7be539ff"] ;
14 -> 16 ;
17 [label="gini = 0.0\nsamples = 6\nvalue = [0, 0, 6, 0, 0]\nclass = rien", fillcolor="#39e5c5ff"] ;
1 -> 17 ;
18 [label="d_me_ball <= 30.2183\ngini = 0.4764\nsamples = 23\nvalue = [16, 2, 4, 1, 0]\nclass = degager", fillcolor="#e58139a1"] ;
0 -> 18 [labeldistance=2.5, labelangle=-45, headlabel="False"] ;
19 [label="d_me_but_adv <= 146.0689\ngini = 0.3991\nsamples = 21\nvalue = [16, 2, 2, 1, 0]\nclass = degager", fillcolor="#e58139bc"] ;
18 -> 19 ;
20 [label="d_ball_adv <= 23.7632\ngini = 0.2963\nsamples = 18\nvalue = [15, 1, 1, 1, 0]\nclass = degager", fillcolor="#e58139d2"] ;
19 -> 20 ;
21 [label="d_me_ball <= 8.9136\ngini = 0.2266\nsamples = 16\nvalue = [14, 0, 1, 1, 0]\nclass = degager", fillcolor="#e58139dd"] ;
20 -> 21 ;
22 [label="gini = 0.4444\nsamples = 3\nvalue = [2, 0, 0, 1, 0]\nclass = degager", fillcolor="#e581397f"] ;
21 -> 22 ;
23 [label="gini = 0.142\nsamples = 13\nvalue = [12, 0, 1, 0, 0]\nclass = degager", fillcolor="#e58139ea"] ;
21 -> 23 ;
24 [label="gini = 0.5\nsamples = 2\nvalue = [1, 1, 0, 0, 0]\nclass = degager", fillcolor="#e5813900"] ;
20 -> 24 ;
25 [label="gini = 0.6667\nsamples = 3\nvalue = [1, 1, 1, 0, 0]\nclass = degager", fillcolor="#e5813900"] ;
19 -> 25 ;
26 [label="gini = 0.0\nsamples = 2\nvalue = [0, 0, 2, 0, 0]\nclass = rien", fillcolor="#39e5c5ff"] ;
18 -> 26 ;
}